<?xml version="1.0"?>
<opencv_storage>
<stage10>
  <maxWeakCount>5</maxWeakCount>
  <stageThreshold>-1.3673939704895020e+00</stageThreshold>
  <weakClassifiers>
    <_>
      <internalNodes>
        0 -1 127510 -3.3199879527091980e-01</internalNodes>
      <leafValues>
        7.0212763547897339e-01 -7.5652176141738892e-01</leafValues></_>
    <_>
      <internalNodes>
        0 -1 316141 -1.4982411265373230e-01</internalNodes>
      <leafValues>
        5.1565444469451904e-01 -4.8411932587623596e-01</leafValues></_>
    <_>
      <internalNodes>
        0 -1 31198 4.9128185492008924e-04</internalNodes>
      <leafValues>
        2.5509530305862427e-01 -8.2624340057373047e-01</leafValues></_>
    <_>
      <internalNodes>
        0 -1 31278 -9.6655281959101558e-04</internalNodes>
      <leafValues>
        -8.9567238092422485e-01 2.8825029730796814e-01</leafValues></_>
    <_>
      <internalNodes>
        0 -1 115886 -3.0101612210273743e-02</internalNodes>
      <leafValues>
        5.6790119409561157e-01 -4.8594963550567627e-01</leafValues></_></weakClassifiers></stage10>
</opencv_storage>
