<?xml version="1.0"?>
<opencv_storage>
<stage13>
  <maxWeakCount>5</maxWeakCount>
  <stageThreshold>-1.6605063676834106e+00</stageThreshold>
  <weakClassifiers>
    <_>
      <internalNodes>
        0 -1 7151 904646879 -35697442 -402517797 -537194290 -1128285281
        -35793525 -1127485810 -1057573</internalNodes>
      <leafValues>
        -8.8292211294174194e-01 6.4583331346511841e-01</leafValues></_>
    <_>
      <internalNodes>
        0 -1 20146 2108356575 -405482145 -1056635629 1221578591
        2024405391 -1579335413 1226167177 -8652129</internalNodes>
      <leafValues>
        -8.1526345014572144e-01 2.4487002193927765e-01</leafValues></_>
    <_>
      <internalNodes>
        0 -1 4823 -128262209 -2763301 -935273460 -297860949 -73416897
        462129305 -358598277 -7370099</internalNodes>
      <leafValues>
        -8.6697405576705933e-01 3.7428846955299377e-01</leafValues></_>
    <_>
      <internalNodes>
        0 -1 5706 -996430849 -721163527 -1290669831 -773203715
        1635971005 -1061126072 -337642499 -608469523</internalNodes>
      <leafValues>
        -6.6641551256179810e-01 5.9450531005859375e-01</leafValues></_>
    <_>
      <internalNodes>
        0 -1 24561 -2124688385 -1428189093 1342263639 -32858644
        956917947 -1149140856 1212793383 -1103447313</internalNodes>
      <leafValues>
        -8.4853780269622803e-01 5.1093524694442749e-01</leafValues></_></weakClassifiers></stage13>
</opencv_storage>
